<?xml version="1.0"?>
<opencv_storage>
<stage6>
  <maxWeakCount>19</maxWeakCount>
  <stageThreshold>-1.3883872032165527e+00</stageThreshold>
  <weakClassifiers>
    <_>
      <internalNodes>
        0 -1 82746 -7.0724003016948700e-03</internalNodes>
      <leafValues>
        -1.8709677457809448e-01 -6.5108323097229004e-01</leafValues></_>
    <_>
      <internalNodes>
        0 -1 3409 -5.7790619321167469e-03</internalNodes>
      <leafValues>
        3.6586919426918030e-01 -2.3359160125255585e-01</leafValues></_>
    <_>
      <internalNodes>
        0 -1 33525 3.6468550562858582e-02</internalNodes>
      <leafValues>
        1.3155436515808105e-01 -5.6006044149398804e-01</leafValues></_>
    <_>
      <internalNodes>
        0 -1 5305 -6.8290114402770996e-02</internalNodes>
      <leafValues>
        -5.4592126607894897e-01 1.5678222477436066e-01</leafValues></_>
    <_>
      <internalNodes>
        0 -1 106910 -2.9506273567676544e-02</internalNodes>
      <leafValues>
        4.3085283041000366e-01 -1.8551976978778839e-01</leafValues></_>
    <_>
      <internalNodes>
        0 -1 79345 4.7893570736050606e-03</internalNodes>
      <leafValues>
        1.4720205962657928e-01 -6.8237090110778809e-01</leafValues></_>
    <_>
      <internalNodes>
        0 -1 96863 1.3177352026104927e-02</internalNodes>
      <leafValues>
        -1.8185757100582123e-01 4.1712337732315063e-01</leafValues></_>
    <_>
      <internalNodes>
        0 -1 99442 -6.6947611048817635e-04</internalNodes>
      <leafValues>
        -5.7397979497909546e-01 1.3807004690170288e-01</leafValues></_>
    <_>
      <internalNodes>
        0 -1 93467 1.1151046305894852e-01</internalNodes>
      <leafValues>
        -1.7250856757164001e-01 4.2697867751121521e-01</leafValues></_>
    <_>
      <internalNodes>
        0 -1 60449 1.0402491316199303e-03</internalNodes>
      <leafValues>
        1.7468141019344330e-01 -4.6272689104080200e-01</leafValues></_>
    <_>
      <internalNodes>
        0 -1 46763 7.6283395290374756e-02</internalNodes>
      <leafValues>
        -1.5886497497558594e-01 5.1075547933578491e-01</leafValues></_>
    <_>
      <internalNodes>
        0 -1 10101 3.8401436060667038e-02</internalNodes>
      <leafValues>
        -7.5240418314933777e-02 7.6136326789855957e-01</leafValues></_>
    <_>
      <internalNodes>
        0 -1 33711 -1.6873425245285034e-01</internalNodes>
      <leafValues>
        4.8813688755035400e-01 -1.3556030392646790e-01</leafValues></_>
    <_>
      <internalNodes>
        0 -1 48073 1.4662483334541321e-01</internalNodes>
      <leafValues>
        -1.7702949047088623e-01 3.3701637387275696e-01</leafValues></_>
    <_>
      <internalNodes>
        0 -1 9760 2.4678388144820929e-03</internalNodes>
      <leafValues>
        -2.0279818773269653e-01 3.1343448162078857e-01</leafValues></_>
    <_>
      <internalNodes>
        0 -1 110935 1.1786309070885181e-02</internalNodes>
      <leafValues>
        -1.2958733737468719e-01 4.5339232683181763e-01</leafValues></_>
    <_>
      <internalNodes>
        0 -1 114101 2.6702370960265398e-03</internalNodes>
      <leafValues>
        8.6131177842617035e-02 -8.4908151626586914e-01</leafValues></_>
    <_>
      <internalNodes>
        0 -1 80346 8.8387745199725032e-04</internalNodes>
      <leafValues>
        6.0031998902559280e-02 -7.3229891061782837e-01</leafValues></_>
    <_>
      <internalNodes>
        0 -1 114738 -1.2405344750732183e-04</internalNodes>
      <leafValues>
        -4.2771416902542114e-01 1.2452355027198792e-01</leafValues></_></weakClassifiers></stage6>
</opencv_storage>
