<?xml version="1.0"?>
<opencv_storage>
<stage2>
  <maxWeakCount>10</maxWeakCount>
  <stageThreshold>-1.2738202810287476e+00</stageThreshold>
  <weakClassifiers>
    <_>
      <internalNodes>
        0 -1 15967 5.0266839563846588e-02</internalNodes>
      <leafValues>
        -6.3732391595840454e-01 3.2038834691047668e-01</leafValues></_>
    <_>
      <internalNodes>
        0 -1 97028 -1.5611276467097923e-05</internalNodes>
      <leafValues>
        3.9749532938003540e-01 -4.9082529544830322e-01</leafValues></_>
    <_>
      <internalNodes>
        0 -1 50241 -3.7923526018857956e-02</internalNodes>
      <leafValues>
        5.9269750118255615e-01 -2.3468956351280212e-01</leafValues></_>
    <_>
      <internalNodes>
        0 -1 85411 1.4215522242011502e-05</internalNodes>
      <leafValues>
        -2.4847373366355896e-01 4.5821151137351990e-01</leafValues></_>
    <_>
      <internalNodes>
        0 -1 6044 -1.8770959973335266e-01</internalNodes>
      <leafValues>
        8.5526746511459351e-01 -1.4192035794258118e-01</leafValues></_>
    <_>
      <internalNodes>
        0 -1 15830 -1.3443058729171753e-01</internalNodes>
      <leafValues>
        -8.5106825828552246e-01 1.6929285228252411e-01</leafValues></_>
    <_>
      <internalNodes>
        0 -1 27615 8.5542108863592148e-03</internalNodes>
      <leafValues>
        -1.7938564717769623e-01 6.6049182415008545e-01</leafValues></_>
    <_>
      <internalNodes>
        0 -1 52398 -2.5886454386636615e-04</internalNodes>
      <leafValues>
        2.5477153062820435e-01 -4.7864848375320435e-01</leafValues></_>
    <_>
      <internalNodes>
        0 -1 55619 1.9374828785657883e-02</internalNodes>
      <leafValues>
        -2.5580063462257385e-01 5.1912736892700195e-01</leafValues></_>
    <_>
      <internalNodes>
        0 -1 108117 2.3348938673734665e-02</internalNodes>
      <leafValues>
        -2.1615065634250641e-01 5.4736304283142090e-01</leafValues></_></weakClassifiers></stage2>
</opencv_storage>
