<?xml version="1.0"?>
<opencv_storage>
<stage0>
  <maxWeakCount>7</maxWeakCount>
  <stageThreshold>-1.3567458391189575e+00</stageThreshold>
  <weakClassifiers>
    <_>
      <internalNodes>
        0 -1 65276 -9.4136064872145653e-03</internalNodes>
      <leafValues>
        6.1403506994247437e-01 -6.5157985687255859e-01</leafValues></_>
    <_>
      <internalNodes>
        0 -1 42091 -5.9081576764583588e-03</internalNodes>
      <leafValues>
        7.4739265441894531e-01 -3.7266400456428528e-01</leafValues></_>
    <_>
      <internalNodes>
        0 -1 65663 -1.0356714949011803e-02</internalNodes>
      <leafValues>
        8.4102421998977661e-01 -2.1778793632984161e-01</leafValues></_>
    <_>
      <internalNodes>
        0 -1 64851 2.7921486645936966e-02</internalNodes>
      <leafValues>
        -1.9560581445693970e-01 8.3007383346557617e-01</leafValues></_>
    <_>
      <internalNodes>
        0 -1 16500 1.3808706402778625e-01</internalNodes>
      <leafValues>
        -1.9513040781021118e-01 7.4979156255722046e-01</leafValues></_>
    <_>
      <internalNodes>
        0 -1 58222 -1.0452460497617722e-01</internalNodes>
      <leafValues>
        6.2510710954666138e-01 -2.7066659927368164e-01</leafValues></_>
    <_>
      <internalNodes>
        0 -1 103448 9.0660722926259041e-03</internalNodes>
      <leafValues>
        -2.5358563661575317e-01 5.4668879508972168e-01</leafValues></_></weakClassifiers></stage0>
</opencv_storage>
