<?xml version="1.0"?>
<opencv_storage>
<stage8>
  <maxWeakCount>20</maxWeakCount>
  <stageThreshold>-1.1738449335098267e+00</stageThreshold>
  <weakClassifiers>
    <_>
      <internalNodes>
        0 -1 61687 -2.4314051494002342e-02</internalNodes>
      <leafValues>
        6.4102566242218018e-01 -5.2417498826980591e-01</leafValues></_>
    <_>
      <internalNodes>
        0 -1 1992 -3.4856185317039490e-02</internalNodes>
      <leafValues>
        4.4154772162437439e-01 -1.9827175140380859e-01</leafValues></_>
    <_>
      <internalNodes>
        0 -1 94438 -6.1956781428307295e-04</internalNodes>
      <leafValues>
        -6.0805183649063110e-01 1.1189033091068268e-01</leafValues></_>
    <_>
      <internalNodes>
        0 -1 8118 -2.2388654761016369e-03</internalNodes>
      <leafValues>
        3.6437219381332397e-01 -1.4539219439029694e-01</leafValues></_>
    <_>
      <internalNodes>
        0 -1 92007 -8.7801564950495958e-04</internalNodes>
      <leafValues>
        2.5180044770240784e-01 -2.4450449645519257e-01</leafValues></_>
    <_>
      <internalNodes>
        0 -1 73879 -6.7604845389723778e-04</internalNodes>
      <leafValues>
        -4.3457812070846558e-01 1.0017935931682587e-01</leafValues></_>
    <_>
      <internalNodes>
        0 -1 61287 3.9298431947827339e-03</internalNodes>
      <leafValues>
        6.1969786882400513e-02 -8.0363327264785767e-01</leafValues></_>
    <_>
      <internalNodes>
        0 -1 6936 -1.1942961812019348e-01</internalNodes>
      <leafValues>
        3.2680988311767578e-01 -1.6405953466892242e-01</leafValues></_>
    <_>
      <internalNodes>
        0 -1 113800 -1.4072475023567677e-03</internalNodes>
      <leafValues>
        5.4708278179168701e-01 -1.0511199384927750e-01</leafValues></_>
    <_>
      <internalNodes>
        0 -1 78268 2.3994274437427521e-02</internalNodes>
      <leafValues>
        -1.6941696405410767e-01 3.2653135061264038e-01</leafValues></_>
    <_>
      <internalNodes>
        0 -1 65612 4.5889288187026978e-02</internalNodes>
      <leafValues>
        8.2198977470397949e-02 -6.1775976419448853e-01</leafValues></_>
    <_>
      <internalNodes>
        0 -1 96576 -1.0602843016386032e-02</internalNodes>
      <leafValues>
        3.3290517330169678e-01 -1.8777507543563843e-01</leafValues></_>
    <_>
      <internalNodes>
        0 -1 1855 -6.9901710376143456e-03</internalNodes>
      <leafValues>
        4.2894387245178223e-01 -1.2805767357349396e-01</leafValues></_>
    <_>
      <internalNodes>
        0 -1 73884 1.1912039481103420e-03</internalNodes>
      <leafValues>
        1.2172868102788925e-01 -5.1471525430679321e-01</leafValues></_>
    <_>
      <internalNodes>
        0 -1 3371 8.5731429862789810e-05</internalNodes>
      <leafValues>
        1.6037552058696747e-01 -3.2166165113449097e-01</leafValues></_>
    <_>
      <internalNodes>
        0 -1 85874 -1.3700379990041256e-02</internalNodes>
      <leafValues>
        -1. 4.6699300408363342e-02</leafValues></_>
    <_>
      <internalNodes>
        0 -1 105843 -5.4007638245820999e-03</internalNodes>
      <leafValues>
        3.5912334918975830e-01 -1.5220610797405243e-01</leafValues></_>
    <_>
      <internalNodes>
        0 -1 102934 7.0122634060680866e-03</internalNodes>
      <leafValues>
        -1.0981581360101700e-01 4.9465572834014893e-01</leafValues></_>
    <_>
      <internalNodes>
        0 -1 85800 4.3274997733533382e-04</internalNodes>
      <leafValues>
        1.3897372782230377e-01 -3.9638900756835938e-01</leafValues></_>
    <_>
      <internalNodes>
        0 -1 91419 7.7829631045460701e-03</internalNodes>
      <leafValues>
        -1.4729131758213043e-01 3.7416580319404602e-01</leafValues></_></weakClassifiers></stage8>
</opencv_storage>
