<?xml version="1.0"?>
<opencv_storage>
<stage18>
  <maxWeakCount>26</maxWeakCount>
  <stageThreshold>-1.2842816114425659e+00</stageThreshold>
  <weakClassifiers>
    <_>
      <internalNodes>
        0 -1 37924 -9.7155850380659103e-03</internalNodes>
      <leafValues>
        4.6666666865348816e-01 -5.2351582050323486e-01</leafValues></_>
    <_>
      <internalNodes>
        0 -1 67424 9.2255533672869205e-04</internalNodes>
      <leafValues>
        3.2392065972089767e-02 -5.5311614274978638e-01</leafValues></_>
    <_>
      <internalNodes>
        0 -1 108856 5.8801488194148988e-05</internalNodes>
      <leafValues>
        1.3311967253684998e-01 -2.9031887650489807e-01</leafValues></_>
    <_>
      <internalNodes>
        0 -1 103039 3.4763729199767113e-03</internalNodes>
      <leafValues>
        -1.4963050186634064e-01 2.7240055799484253e-01</leafValues></_>
    <_>
      <internalNodes>
        0 -1 6510 -6.3393436372280121e-02</internalNodes>
      <leafValues>
        -5.4480928182601929e-01 7.7434636652469635e-02</leafValues></_>
    <_>
      <internalNodes>
        0 -1 109924 -6.2943884404376149e-04</internalNodes>
      <leafValues>
        4.9077299237251282e-01 -8.9577108621597290e-02</leafValues></_>
    <_>
      <internalNodes>
        0 -1 110890 -9.4795832410454750e-03</internalNodes>
      <leafValues>
        -6.9379776716232300e-01 6.3990578055381775e-02</leafValues></_>
    <_>
      <internalNodes>
        0 -1 81536 1.3624843209981918e-02</internalNodes>
      <leafValues>
        -1.3784429430961609e-01 3.5739374160766602e-01</leafValues></_>
    <_>
      <internalNodes>
        0 -1 87634 -1.2612182763405144e-04</internalNodes>
      <leafValues>
        1.6284930706024170e-01 -2.6804599165916443e-01</leafValues></_>
    <_>
      <internalNodes>
        0 -1 111879 7.0651401765644550e-03</internalNodes>
      <leafValues>
        -1.8390040099620819e-01 2.5231090188026428e-01</leafValues></_>
    <_>
      <internalNodes>
        0 -1 85330 1.9980709999799728e-02</internalNodes>
      <leafValues>
        -1.3982565701007843e-01 3.7437337636947632e-01</leafValues></_>
    <_>
      <internalNodes>
        0 -1 107960 -1.3422799296677113e-02</internalNodes>
      <leafValues>
        3.6760208010673523e-01 -1.2360755354166031e-01</leafValues></_>
    <_>
      <internalNodes>
        0 -1 57731 -2.5187723338603973e-02</internalNodes>
      <leafValues>
        3.0784422159194946e-01 -1.7129918932914734e-01</leafValues></_>
    <_>
      <internalNodes>
        0 -1 51116 1.1963369324803352e-02</internalNodes>
      <leafValues>
        -1.4350296556949615e-01 3.2174918055534363e-01</leafValues></_>
    <_>
      <internalNodes>
        0 -1 91967 1.4831231965217739e-05</internalNodes>
      <leafValues>
        -1.8123042583465576e-01 2.4084682762622833e-01</leafValues></_>
    <_>
      <internalNodes>
        0 -1 61365 1.1893812566995621e-02</internalNodes>
      <leafValues>
        6.6116072237491608e-02 -6.1289739608764648e-01</leafValues></_>
    <_>
      <internalNodes>
        0 -1 113612 -4.2548775672912598e-04</internalNodes>
      <leafValues>
        -2.5779139995574951e-01 1.8702508509159088e-01</leafValues></_>
    <_>
      <internalNodes>
        0 -1 103158 -3.3887147903442383e-02</internalNodes>
      <leafValues>
        -7.0704299211502075e-01 6.8117164075374603e-02</leafValues></_>
    <_>
      <internalNodes>
        0 -1 80209 -1.6558716073632240e-02</internalNodes>
      <leafValues>
        4.7524589300155640e-01 -1.1254999786615372e-01</leafValues></_>
    <_>
      <internalNodes>
        0 -1 45789 -2.1132633555680513e-03</internalNodes>
      <leafValues>
        5.6258535385131836e-01 -7.7436007559299469e-02</leafValues></_>
    <_>
      <internalNodes>
        0 -1 95251 2.3477608337998390e-03</internalNodes>
      <leafValues>
        6.6605158150196075e-02 -7.7876752614974976e-01</leafValues></_>
    <_>
      <internalNodes>
        0 -1 64604 5.3372997790575027e-03</internalNodes>
      <leafValues>
        -1.9883857667446136e-01 2.3271967470645905e-01</leafValues></_>
    <_>
      <internalNodes>
        0 -1 38697 1.1318065226078033e-02</internalNodes>
      <leafValues>
        -1.6545207798480988e-01 3.0850046873092651e-01</leafValues></_>
    <_>
      <internalNodes>
        0 -1 42059 1.2166694737970829e-02</internalNodes>
      <leafValues>
        1.2609805166721344e-01 -4.2327761650085449e-01</leafValues></_>
    <_>
      <internalNodes>
        0 -1 97582 -5.4201590828597546e-03</internalNodes>
      <leafValues>
        -7.6210951805114746e-01 5.8580186218023300e-02</leafValues></_>
    <_>
      <internalNodes>
        0 -1 38018 -1.3806710019707680e-02</internalNodes>
      <leafValues>
        3.2004460692405701e-01 -1.4300093054771423e-01</leafValues></_></weakClassifiers></stage18>
</opencv_storage>
