<?xml version="1.0"?>
<opencv_storage>
<stage3>
  <maxWeakCount>13</maxWeakCount>
  <stageThreshold>-1.2583743333816528e+00</stageThreshold>
  <weakClassifiers>
    <_>
      <internalNodes>
        0 -1 61776 -5.3470112383365631e-02</internalNodes>
      <leafValues>
        3.8317757844924927e-01 -5.6599187850952148e-01</leafValues></_>
    <_>
      <internalNodes>
        0 -1 29847 3.8013242185115814e-02</internalNodes>
      <leafValues>
        -2.7121955156326294e-01 5.1659935712814331e-01</leafValues></_>
    <_>
      <internalNodes>
        0 -1 79416 7.1848528459668159e-03</internalNodes>
      <leafValues>
        1.2854681909084320e-01 -7.7244716882705688e-01</leafValues></_>
    <_>
      <internalNodes>
        0 -1 73518 -1.0343514382839203e-02</internalNodes>
      <leafValues>
        -7.1206957101821899e-01 1.6877707839012146e-01</leafValues></_>
    <_>
      <internalNodes>
        0 -1 34629 5.9678913094103336e-03</internalNodes>
      <leafValues>
        -2.9624921083450317e-01 3.9369770884513855e-01</leafValues></_>
    <_>
      <internalNodes>
        0 -1 5283 2.0695496350526810e-02</internalNodes>
      <leafValues>
        1.7832313477993011e-01 -6.8482232093811035e-01</leafValues></_>
    <_>
      <internalNodes>
        0 -1 79399 6.4946804195642471e-04</internalNodes>
      <leafValues>
        1.2720526754856110e-01 -6.5076631307601929e-01</leafValues></_>
    <_>
      <internalNodes>
        0 -1 101067 5.6670390069484711e-02</internalNodes>
      <leafValues>
        -2.2912098467350006e-01 4.3141067028045654e-01</leafValues></_>
    <_>
      <internalNodes>
        0 -1 19510 1.1260877549648285e-01</internalNodes>
      <leafValues>
        -1.5459901094436646e-01 7.9392421245574951e-01</leafValues></_>
    <_>
      <internalNodes>
        0 -1 52829 9.2271831817924976e-04</internalNodes>
      <leafValues>
        1.3302260637283325e-01 -7.1787124872207642e-01</leafValues></_>
    <_>
      <internalNodes>
        0 -1 112852 7.8737962758168578e-04</internalNodes>
      <leafValues>
        8.7306469678878784e-02 -7.2957783937454224e-01</leafValues></_>
    <_>
      <internalNodes>
        0 -1 22880 -3.8926437497138977e-01</internalNodes>
      <leafValues>
        5.4824823141098022e-01 -1.5182487666606903e-01</leafValues></_>
    <_>
      <internalNodes>
        0 -1 4058 7.9692341387271881e-02</internalNodes>
      <leafValues>
        -2.1719901263713837e-01 4.3834361433982849e-01</leafValues></_></weakClassifiers></stage3>
</opencv_storage>
