<?xml version="1.0"?>
<opencv_storage>
<stage4>
  <maxWeakCount>14</maxWeakCount>
  <stageThreshold>-1.4592136144638062e+00</stageThreshold>
  <weakClassifiers>
    <_>
      <internalNodes>
        0 -1 73688 1.3450758997350931e-03</internalNodes>
      <leafValues>
        -2.3865877091884613e-01 -8.1021898984909058e-01</leafValues></_>
    <_>
      <internalNodes>
        0 -1 73547 1.4994549565017223e-02</internalNodes>
      <leafValues>
        7.6136536896228790e-02 -7.4348765611648560e-01</leafValues></_>
    <_>
      <internalNodes>
        0 -1 114714 -6.4230815041810274e-04</internalNodes>
      <leafValues>
        -5.4774892330169678e-01 1.6304312646389008e-01</leafValues></_>
    <_>
      <internalNodes>
        0 -1 60600 2.1936791017651558e-03</internalNodes>
      <leafValues>
        1.6727899014949799e-01 -4.9936220049858093e-01</leafValues></_>
    <_>
      <internalNodes>
        0 -1 90329 -4.3870080262422562e-03</internalNodes>
      <leafValues>
        -6.3035476207733154e-01 1.5662911534309387e-01</leafValues></_>
    <_>
      <internalNodes>
        0 -1 83941 1.0565990209579468e-01</internalNodes>
      <leafValues>
        -1.9162167608737946e-01 5.0341320037841797e-01</leafValues></_>
    <_>
      <internalNodes>
        0 -1 114098 -1.0229073464870453e-02</internalNodes>
      <leafValues>
        5.8754473924636841e-01 -1.3512670993804932e-01</leafValues></_>
    <_>
      <internalNodes>
        0 -1 79379 -1.1173225939273834e-03</internalNodes>
      <leafValues>
        -5.6795287132263184e-01 1.3607642054557800e-01</leafValues></_>
    <_>
      <internalNodes>
        0 -1 11529 -1.4623254537582397e-01</internalNodes>
      <leafValues>
        9.1786223649978638e-01 -9.3924157321453094e-02</leafValues></_>
    <_>
      <internalNodes>
        0 -1 74874 5.9627601876854897e-03</internalNodes>
      <leafValues>
        -2.0135110616683960e-01 3.7085545063018799e-01</leafValues></_>
    <_>
      <internalNodes>
        0 -1 7044 6.5799623727798462e-02</internalNodes>
      <leafValues>
        1.0649469494819641e-01 -6.7020386457443237e-01</leafValues></_>
    <_>
      <internalNodes>
        0 -1 6510 -6.3378989696502686e-02</internalNodes>
      <leafValues>
        -5.9708338975906372e-01 1.1229739338159561e-01</leafValues></_>
    <_>
      <internalNodes>
        0 -1 56789 6.0752956196665764e-03</internalNodes>
      <leafValues>
        -2.0542207360267639e-01 3.8596534729003906e-01</leafValues></_>
    <_>
      <internalNodes>
        0 -1 80884 -3.3811915200203657e-03</internalNodes>
      <leafValues>
        -7.3950517177581787e-01 8.9125111699104309e-02</leafValues></_></weakClassifiers></stage4>
</opencv_storage>
