<?xml version="1.0"?>
<opencv_storage>
<stage13>
  <maxWeakCount>26</maxWeakCount>
  <stageThreshold>-1.1715387105941772e+00</stageThreshold>
  <weakClassifiers>
    <_>
      <internalNodes>
        0 -1 2850 -3.5490572452545166e-02</internalNodes>
      <leafValues>
        3.3333334326744080e-01 -4.5495495200157166e-01</leafValues></_>
    <_>
      <internalNodes>
        0 -1 106217 -1.5545297414064407e-02</internalNodes>
      <leafValues>
        2.5884461402893066e-01 -2.1190370619297028e-01</leafValues></_>
    <_>
      <internalNodes>
        0 -1 35165 -1.3123053312301636e-01</internalNodes>
      <leafValues>
        3.8745090365409851e-01 -1.0635684430599213e-01</leafValues></_>
    <_>
      <internalNodes>
        0 -1 9745 -1.0010750964283943e-02</internalNodes>
      <leafValues>
        4.6271932125091553e-01 -9.4093874096870422e-02</leafValues></_>
    <_>
      <internalNodes>
        0 -1 83469 -2.9806571546941996e-03</internalNodes>
      <leafValues>
        2.1463824808597565e-01 -1.8827162683010101e-01</leafValues></_>
    <_>
      <internalNodes>
        0 -1 28812 7.9093733802437782e-04</internalNodes>
      <leafValues>
        -9.2631787061691284e-02 4.2612397670745850e-01</leafValues></_>
    <_>
      <internalNodes>
        0 -1 34535 -7.0246895775198936e-03</internalNodes>
      <leafValues>
        4.1549548506736755e-01 -1.0261229425668716e-01</leafValues></_>
    <_>
      <internalNodes>
        0 -1 113861 -2.3638189304620028e-04</internalNodes>
      <leafValues>
        -3.7250551581382751e-01 1.2312524020671844e-01</leafValues></_>
    <_>
      <internalNodes>
        0 -1 29140 -2.5940202176570892e-03</internalNodes>
      <leafValues>
        -6.5172678232192993e-01 1.1225109547376633e-01</leafValues></_>
    <_>
      <internalNodes>
        0 -1 37934 -8.8495835661888123e-03</internalNodes>
      <leafValues>
        3.3499333262443542e-01 -1.3860918581485748e-01</leafValues></_>
    <_>
      <internalNodes>
        0 -1 3614 -1.6268122941255569e-02</internalNodes>
      <leafValues>
        -6.1461633443832397e-01 7.4338249862194061e-02</leafValues></_>
    <_>
      <internalNodes>
        0 -1 24116 -1.2653645128011703e-02</internalNodes>
      <leafValues>
        4.8715275526046753e-01 -1.1417688429355621e-01</leafValues></_>
    <_>
      <internalNodes>
        0 -1 49644 2.7515736874192953e-03</internalNodes>
      <leafValues>
        -1.8062360584735870e-01 3.2134264707565308e-01</leafValues></_>
    <_>
      <internalNodes>
        0 -1 29130 1.5771449543535709e-03</internalNodes>
      <leafValues>
        5.1540527492761612e-02 -7.5666224956512451e-01</leafValues></_>
    <_>
      <internalNodes>
        0 -1 4914 -5.6958757340908051e-03</internalNodes>
      <leafValues>
        2.9992291331291199e-01 -1.5723393857479095e-01</leafValues></_>
    <_>
      <internalNodes>
        0 -1 67897 1.8157389713451266e-03</internalNodes>
      <leafValues>
        8.9775763452053070e-02 -5.4422682523727417e-01</leafValues></_>
    <_>
      <internalNodes>
        0 -1 85787 -1.0126578621566296e-02</internalNodes>
      <leafValues>
        2.4830645322799683e-01 -1.8341538310050964e-01</leafValues></_>
    <_>
      <internalNodes>
        0 -1 28951 1.5982057899236679e-02</internalNodes>
      <leafValues>
        -1.2601229548454285e-01 3.6907178163528442e-01</leafValues></_>
    <_>
      <internalNodes>
        0 -1 82594 5.2854172885417938e-02</internalNodes>
      <leafValues>
        6.2563017010688782e-02 -6.8453723192214966e-01</leafValues></_>
    <_>
      <internalNodes>
        0 -1 89863 8.3950590342283249e-03</internalNodes>
      <leafValues>
        4.9340449273586273e-02 -6.8161904811859131e-01</leafValues></_>
    <_>
      <internalNodes>
        0 -1 110498 -5.9681860730051994e-03</internalNodes>
      <leafValues>
        -3.7470087409019470e-01 1.1861351877450943e-01</leafValues></_>
    <_>
      <internalNodes>
        0 -1 65726 1.3455937732942402e-04</internalNodes>
      <leafValues>
        -1.9627085328102112e-01 2.2524537146091461e-01</leafValues></_>
    <_>
      <internalNodes>
        0 -1 68150 2.5397010613232851e-03</internalNodes>
      <leafValues>
        8.4147185087203979e-02 -5.0694853067398071e-01</leafValues></_>
    <_>
      <internalNodes>
        0 -1 64849 8.0202613025903702e-03</internalNodes>
      <leafValues>
        -1.1602044850587845e-01 3.8533452153205872e-01</leafValues></_>
    <_>
      <internalNodes>
        0 -1 42203 -5.5421707220375538e-03</internalNodes>
      <leafValues>
        2.5803339481353760e-01 -1.8101622164249420e-01</leafValues></_>
    <_>
      <internalNodes>
        0 -1 671 -3.1196262687444687e-02</internalNodes>
      <leafValues>
        -6.4164143800735474e-01 6.7996382713317871e-02</leafValues></_></weakClassifiers></stage13>
</opencv_storage>
